,lambda,returns
0,0.0,0.009969710934630525
1,0.001,0.00993531721310489
2,0.002,0.00990092349157925
3,0.003,0.009866529770053622
4,0.004,0.009832136048527984
5,0.005,0.009797742327002347
6,0.006,0.009763348605476707
7,0.007,0.009728954883951072
8,0.008,0.009694561162425432
9,0.009000000000000001,0.009660167440899783
10,0.01,0.009625773719374146
11,0.011,0.009591379997848506
12,0.012,0.009556986276322876
13,0.013000000000000001,0.009522592554797236
14,0.014,0.009488198833271604
15,0.015,0.009453805111745957
16,0.016,0.009419411390220327
17,0.017,0.009385017668694692
18,0.018000000000000002,0.00935062394716905
19,0.019,0.009316230225643414
20,0.02,0.009281836504117768
21,0.021,0.009247442782592126
22,0.022,0.009213049061066491
23,0.023,0.009178655339540848
24,0.024,0.00914426161801521
25,0.025,0.00910986789648957
26,0.026000000000000002,0.009075474174963946
27,0.027,0.009041080453438308
28,0.028,0.009006686731912659
29,0.029,0.008972293010387017
30,0.03,0.00893789928886138
31,0.031,0.008903505567335749
32,0.032,0.008869111845810103
33,0.033,0.008834718124284466
34,0.034,0.008800324402758818
35,0.035,0.008765930681233188
36,0.036000000000000004,0.008731536959707558
37,0.037,0.008697143238181913
38,0.038,0.00866274951665628
39,0.039,0.008628355795130625
40,0.04,0.00859396207360499
41,0.041,0.008559568352079364
42,0.042,0.008525174630553717
43,0.043000000000000003,0.008490780909028077
44,0.044,0.008456387187502436
45,0.045,0.008421993465976801
46,0.046,0.008387599744451166
47,0.047,0.00835320602292553
48,0.048,0.008318812301399883
49,0.049,0.00828441857987424
50,0.05,0.008250024858348613
51,0.051000000000000004,0.008215631136822974
52,0.052000000000000005,0.008181237415297336
53,0.053,0.008146843693771697
54,0.054,0.008112449972246055
55,0.055,0.008078056250720413
56,0.056,0.008043662529194773
57,0.057,0.00800926880766914
58,0.058,0.007974875086143496
59,0.059000000000000004,0.007940481364617863
60,0.06,0.007906087643092224
61,0.061,0.007871693921566584
62,0.062,0.007837300200040954
63,0.063,0.007802906478515309
64,0.064,0.0077685127569896715
65,0.065,0.007734119035464031
66,0.066,0.0076997253139383885
67,0.067,0.007665331592412747
68,0.068,0.007630937870887111
69,0.069,0.00759654414936147
70,0.07,0.00756215042783583
71,0.07100000000000001,0.0075277567063101935
72,0.07200000000000001,0.007493362984784559
73,0.073,0.007458969263258921
74,0.074,0.007424575541733288
75,0.075,0.007390181820207638
76,0.076,0.007355788098682013
77,0.077,0.007321394377156367
78,0.078,0.0072870006556307225
79,0.079,0.00725260693410509
80,0.08,0.007218213212579449
81,0.081,0.007183819491053816
82,0.082,0.007149425769528176
83,0.083,0.00711503204800254
84,0.084,0.007080638326476906
85,0.085,0.007046244604951265
86,0.08600000000000001,0.007011850883425629
87,0.08700000000000001,0.006977457161899991
88,0.088,0.006943063440374337
89,0.089,0.006908669718848714
90,0.09,0.006874275997323067
91,0.091,0.006839882275797427
92,0.092,0.0068054885542718005
93,0.093,0.00677109483274615
94,0.094,0.006736701111220515
95,0.095,0.006702307389694886
96,0.096,0.006667913668169233
97,0.097,0.006633519946643596
98,0.098,0.006599126225117965
99,0.099,0.0065647325035923226
100,0.1,0.006530338782066681
101,0.101,0.00649594506054104
102,0.10200000000000001,0.006461551339015408
103,0.10300000000000001,0.006427157617489765
104,0.10400000000000001,0.0063927638959641354
105,0.105,0.006358370174438493
106,0.106,0.00632397645291285
107,0.107,0.006289582731387212
108,0.108,0.006255189009861578
109,0.109,0.006220795288335937
110,0.11,0.006186401566810289
111,0.111,0.0061520078452846575
112,0.112,0.006117614123759018
113,0.113,0.0060832204022333745
114,0.114,0.006048826680707748
115,0.115,0.006014432959182096
116,0.116,0.00598003923765647
117,0.117,0.005945645516130827
118,0.11800000000000001,0.00591125179460519
119,0.11900000000000001,0.005876858073079546
120,0.12,0.005842464351553911
121,0.121,0.005808070630028278
122,0.122,0.005773676908502631
123,0.123,0.005739283186976999
124,0.124,0.005704889465451356
125,0.125,0.0056704957439257155
126,0.126,0.005636102022400074
127,0.127,0.005601708300874444
128,0.128,0.005567314579348802
129,0.129,0.005532920857823167
130,0.13,0.005498527136297527
131,0.131,0.005464133414771888
132,0.132,0.0054297396932462515
133,0.133,0.005395345971720611
134,0.134,0.005360952250194968
135,0.135,0.005326558528669333
136,0.136,0.0052921648071436855
137,0.137,0.005257771085618042
138,0.138,0.005223377364092413
139,0.139,0.005188983642566784
140,0.14,0.0051545899210411455
141,0.14100000000000001,0.005120196199515504
142,0.14200000000000002,0.005085802477989862
143,0.14300000000000002,0.005051408756464225
144,0.14400000000000002,0.0050170150349385855
145,0.145,0.004982621313412946
146,0.146,0.004948227591887305
147,0.147,0.004913833870361664
148,0.148,0.004879440148836039
149,0.149,0.004845046427310396
150,0.15,0.004810652705784754
151,0.151,0.004776258984259119
152,0.152,0.004741865262733484
153,0.153,0.0047074715412078385
154,0.154,0.004673077819682203
155,0.155,0.0046386840981565486
156,0.156,0.004604290376630911
157,0.157,0.004569896655105276
158,0.158,0.00453550293357964
159,0.159,0.004501109212054008
160,0.16,0.004466715490528369
161,0.161,0.004432321769002728
162,0.162,0.004397928047477099
163,0.163,0.004363534325951451
164,0.164,0.004329140604425819
165,0.165,0.004294746882900177
166,0.166,0.004260353161374536
167,0.167,0.004225959439848896
168,0.168,0.0041915657183232615
169,0.169,0.004157171996797622
170,0.17,0.004122778275271981
171,0.171,0.004088384553746356
172,0.17200000000000001,0.004053990832220711
173,0.17300000000000001,0.0040195971106950674
174,0.17400000000000002,0.0039852033891694325
175,0.17500000000000002,0.003950809667643797
176,0.176,0.003916415946118157
177,0.177,0.003882022224592516
178,0.178,0.003847628503066876
179,0.179,0.0038132347815412384
180,0.18,0.003778841060015594
181,0.181,0.0037444473384899597
182,0.182,0.0037100536169643187
183,0.183,0.003675659895438681
184,0.184,0.003641266173913046
185,0.185,0.0036068724523874033
186,0.186,0.003572478730861763
187,0.187,0.003538085009336128
188,0.188,0.003503691287810488
189,0.189,0.003469297566284852
190,0.19,0.003434903844759212
191,0.191,0.0034005101232335725
192,0.192,0.0033661164017079357
193,0.193,0.0033317226801822955
194,0.194,0.0032973289586566597
195,0.195,0.003262935237131021
196,0.196,0.0032285415156053775
197,0.197,0.0031941477940797417
198,0.198,0.0031597540725541093
199,0.199,0.003125360351028471
200,0.2,0.0030909666295028315
201,0.201,0.003056572907977181
202,0.202,0.003022179186451552
203,0.203,0.0029877854649259057
204,0.20400000000000001,0.002953391743400268
205,0.20500000000000002,0.0029189980218746322
206,0.20600000000000002,0.0028846043003489946
207,0.20700000000000002,0.0028502105788233605
208,0.20800000000000002,0.0028158168572977264
209,0.209,0.0027814231357720792
210,0.21,0.0027470294142464356
211,0.211,0.002712635692720805
212,0.212,0.0026782419711951612
213,0.213,0.0026438482496695245
214,0.214,0.0026094545281438886
215,0.215,0.0025750608066182406
216,0.216,0.002540667085092609
217,0.217,0.002506273363566969
218,0.218,0.002471879642041339
219,0.219,0.0024374859205156954
220,0.22,0.0024030921989900535
221,0.221,0.0023686984774644254
222,0.222,0.0023343047559387757
223,0.223,0.0022999110344131364
224,0.224,0.0022655173128875022
225,0.225,0.0022311235913618594
226,0.226,0.0021967298698362158
227,0.227,0.0021623361483105894
228,0.228,0.002127942426784945
229,0.229,0.002093548705259311
230,0.23,0.002059154983733674
231,0.231,0.002024761262208026
232,0.232,0.0019903675406823945
233,0.233,0.001955973819156757
234,0.234,0.0019215800976311124
235,0.23500000000000001,0.0018871863761054748
236,0.23600000000000002,0.0018527926545798398
237,0.23700000000000002,0.0018183989330542013
238,0.23800000000000002,0.0017840052115285637
239,0.23900000000000002,0.0017496114900029175
240,0.24,0.0017152177684772807
241,0.241,0.0016808240469516483
242,0.242,0.0016464303254260099
243,0.243,0.001612036603900368
244,0.244,0.0015776428823747312
245,0.245,0.0015432491608490858
246,0.246,0.0015088554393234543
247,0.247,0.0014744617177978132
248,0.248,0.0014400679962721773
249,0.249,0.0014056742747465328
250,0.25,0.0013712805532208987
251,0.251,0.0013368868316952645
252,0.252,0.0013024931101696235
253,0.253,0.0012680993886439815
254,0.254,0.0012337056671183457
255,0.255,0.001199311945592709
256,0.256,0.0011649182240670661
257,0.257,0.001130524502541432
258,0.258,0.0010961307810157918
259,0.259,0.0010617370594901499
260,0.26,0.0010273433379645158
261,0.261,0.0009929496164388695
262,0.262,0.0009585558949132423
263,0.263,0.000924162173387596
264,0.264,0.000889768451861955
265,0.265,0.0008553747303363226
266,0.266,0.0008209810088106789
267,0.267,0.00078658728728505
268,0.268,0.0007521935657594037
269,0.269,0.0007177998442337661
270,0.27,0.0006834061227081285
271,0.271,0.0006490124011824883
272,0.272,0.0006146186796568464
273,0.273,0.0005802249581312088
274,0.274,0.000545831236605572
275,0.275,0.000511437515079931
276,0.276,0.0004770437935542925
277,0.277,0.0004426500720286549
278,0.278,0.00040825635050301644
279,0.279,0.00037386262897737797
280,0.28,0.0003394689074517404
281,0.281,0.0003050751859261019
282,0.28200000000000003,0.00027068146440046344
283,0.28300000000000003,0.0002362877428748241
284,0.28400000000000003,0.00020189402134918565
285,0.28500000000000003,0.00016750029982354978
286,0.28600000000000003,0.00013310657829791305
287,0.28700000000000003,9.871285677226851e-05
288,0.28800000000000003,6.431913524663352e-05
289,0.289,2.9925413721001992e-05
290,0.29,-4.4683078046416774e-06
291,0.291,-3.886202933028188e-05
292,0.292,-7.325575085592555e-05
293,0.293,-0.00010764947238155968
294,0.294,-0.00014204319390719467
295,0.295,-0.0001764369154328366
296,0.296,-0.00021083063695847074
297,0.297,-0.00024522435848411094
298,0.298,-0.0002796180800097494
299,0.299,-0.00031401180153539047
300,0.3,-0.0003484055230610246
301,0.301,-0.0003827992445866674
302,0.302,-0.00041719296611230933
303,0.303,-0.00045158668763794086
304,0.304,-0.00048598040916358106
305,0.305,-0.0005203741306892204
306,0.306,-0.0005547678522148597
307,0.307,-0.0005891615737404999
308,0.308,-0.0006235552952661323
309,0.309,-0.0006579490167917786
310,0.31,-0.0006923427383174145
311,0.311,-0.0007267364598430538
312,0.312,-0.0007611301813686914
313,0.313,-0.0007955239028943316
314,0.314,-0.0008299176244199666
315,0.315,-0.0008643113459456016
316,0.316,-0.0008987050674712505
317,0.317,-0.0009330987889968872
318,0.318,-0.0009674925105225256
319,0.319,-0.001001886232048165
320,0.32,-0.0010362799535738052
321,0.321,-0.0010706736750994367
322,0.322,-0.001105067396625077
323,0.323,-0.0011394611181507136
324,0.324,-0.0011738548396763504
325,0.325,-0.0012082485612019906
326,0.326,-0.0012426422827276368
327,0.327,-0.0012770360042532675
328,0.328,-0.0013114297257789086
329,0.329,-0.0013458234473045462
330,0.33,-0.0013802171688301803
331,0.331,-0.00141461089035583
332,0.332,-0.0014490046118814616
333,0.333,-0.0014833983334071026
334,0.334,-0.0015177920549327394
335,0.335,-0.0015521857764583787
336,0.336,-0.0015865794979840146
337,0.337,-0.0016209732195096548
338,0.338,-0.0016553669410352993
339,0.339,-0.00168976066256093
340,0.34,-0.001724154384086577
341,0.341,-0.001758548105612212
342,0.342,-0.001792941827137848
343,0.343,-0.001827335548663489
344,0.34400000000000003,-0.0018617292701891284
345,0.34500000000000003,-0.0018961229917147668
346,0.34600000000000003,-0.0019305167132404096
347,0.34700000000000003,-0.0019649104347660437
348,0.34800000000000003,-0.001999304156291682
349,0.34900000000000003,-0.0020336978778173207
350,0.35000000000000003,-0.00206809159934296
351,0.35100000000000003,-0.0021024853208685976
352,0.352,-0.0021368790423942387
353,0.353,-0.00217127276391987
354,0.354,-0.0022056664854455165
355,0.355,-0.002240060206971154
356,0.356,-0.002274453928496789
357,0.357,-0.002308847650022425
358,0.358,-0.00234324137154806
359,0.359,-0.0023776350930737027
360,0.36,-0.002412028814599344
361,0.361,-0.0024464225361249823
362,0.362,-0.002480816257650613
363,0.363,-0.002515209979176259
364,0.364,-0.002549603700701897
365,0.365,-0.0025839974222275327
366,0.366,-0.0026183911437531703
367,0.367,-0.0026527848652788052
368,0.368,-0.002687178586804449
369,0.369,-0.00272157230833009
370,0.37,-0.0027559660298557224
371,0.371,-0.0027903597513813713
372,0.372,-0.0028247534729070036
373,0.373,-0.0028591471944326404
374,0.374,-0.002893540915958284
375,0.375,-0.0029279346374839208
376,0.376,-0.002962328359009561
377,0.377,-0.002996722080535201
378,0.378,-0.00303111580206083
379,0.379,-0.003065509523586478
380,0.38,-0.0030999032451121157
381,0.381,-0.00313429696663775
382,0.382,-0.003168690688163385
383,0.383,-0.0032030844096890285
384,0.384,-0.0032374781312146644
385,0.385,-0.003271871852740307
386,0.386,-0.0033062655742659465
387,0.387,-0.0033406592957915867
388,0.388,-0.0033750530173172243
389,0.389,-0.003409446738842862
390,0.39,-0.003443840460368504
391,0.391,-0.003478234181894143
392,0.392,-0.003512627903419772
393,0.393,-0.0035470216249454166
394,0.394,-0.0035814153464710508
395,0.395,-0.0036158090679966988
396,0.396,-0.0036502027895223286
397,0.397,-0.0036845965110479653
398,0.398,-0.003718990232573614
399,0.399,-0.003753383954099251
400,0.4,-0.003787777675624886
401,0.401,-0.0038221713971505287
402,0.402,-0.0038565651186761645
403,0.403,-0.0038909588402018013
404,0.404,-0.003925352561727442
405,0.405,-0.003959746283253073
406,0.406,-0.003994140004778712
407,0.40700000000000003,-0.004028533726304358
408,0.40800000000000003,-0.00406292744782999
409,0.40900000000000003,-0.004097321169355633
410,0.41000000000000003,-0.004131714890881273
411,0.41100000000000003,-0.004166108612406908
412,0.41200000000000003,-0.004200502333932547
413,0.41300000000000003,-0.004234896055458189
414,0.41400000000000003,-0.0042692897769838175
415,0.41500000000000004,-0.004303683498509464
416,0.41600000000000004,-0.004338077220035101
417,0.417,-0.004372470941560739
418,0.418,-0.00440686466308638
419,0.419,-0.004441258384612018
420,0.42,-0.004475652106137652
421,0.421,-0.004510045827663295
422,0.422,-0.004544439549188936
423,0.423,-0.004578833270714576
424,0.424,-0.0046132269922402125
425,0.425,-0.0046476207137658475
426,0.426,-0.0046820144352914895
427,0.427,-0.004716408156817122
428,0.428,-0.004750801878342768
429,0.429,-0.004785195599868404
430,0.43,-0.00481958932139404
431,0.431,-0.004853983042919675
432,0.432,-0.0048883767644453124
433,0.433,-0.004922770485970961
434,0.434,-0.004957164207496594
435,0.435,-0.0049915579290222304
436,0.436,-0.005025951650547869
437,0.437,-0.005060345372073511
438,0.438,-0.00509473909359915
439,0.439,-0.005129132815124784
440,0.44,-0.005163526536650428
441,0.441,-0.005197920258176062
442,0.442,-0.005232313979701705
443,0.443,-0.0052667077012273425
444,0.444,-0.005301101422752982
445,0.445,-0.005335495144278619
446,0.446,-0.005369888865804254
447,0.447,-0.0054042825873299016
448,0.448,-0.005438676308855534
449,0.449,-0.005473070030381178
450,0.45,-0.005507463751906809
451,0.451,-0.005541857473432451
452,0.452,-0.005576251194958093
453,0.453,-0.005610644916483725
454,0.454,-0.0056450386380093595
455,0.455,-0.005679432359535009
456,0.456,-0.0057138260810606495
457,0.457,-0.005748219802586283
458,0.458,-0.005782613524111921
459,0.459,-0.005817007245637558
460,0.46,-0.005851400967163197
461,0.461,-0.005885794688688836
462,0.462,-0.00592018841021448
463,0.463,-0.005954582131740117
464,0.464,-0.0059889758532657485
465,0.465,-0.0060233695747913905
466,0.466,-0.006057763296317032
467,0.467,-0.006092157017842673
468,0.468,-0.006126550739368309
469,0.46900000000000003,-0.006160944460893946
470,0.47000000000000003,-0.006195338182419576
471,0.47100000000000003,-0.006229731903945225
472,0.47200000000000003,-0.0062641256254708615
473,0.47300000000000003,-0.006298519346996496
474,0.47400000000000003,-0.006332913068522138
475,0.47500000000000003,-0.006367306790047773
476,0.47600000000000003,-0.006401700511573417
477,0.47700000000000004,-0.006436094233099054
478,0.47800000000000004,-0.006470487954624694
479,0.47900000000000004,-0.0065048816761503325
480,0.48,-0.006539275397675962
481,0.481,-0.006573669119201606
482,0.482,-0.006608062840727241
483,0.483,-0.006642456562252881
484,0.484,-0.006676850283778519
485,0.485,-0.006711244005304161
486,0.486,-0.006745637726829799
487,0.487,-0.0067800314483554384
488,0.488,-0.006814425169881076
489,0.489,-0.006848818891406716
490,0.49,-0.006883212612932356
491,0.491,-0.006917606334457996
492,0.492,-0.006952000055983632
493,0.493,-0.006986393777509273
494,0.494,-0.007020787499034915
495,0.495,-0.007055181220560551
496,0.496,-0.007089574942086185
497,0.497,-0.00712396866361182
498,0.498,-0.007158362385137464
499,0.499,-0.0071927561066631
500,0.5,-0.0072271498281887454
501,0.501,-0.007261543549714387
502,0.502,-0.007295937271240014
503,0.503,-0.00733033099276566
504,0.504,-0.007364724714291296
505,0.505,-0.007399118435816932
506,0.506,-0.007433512157342569
507,0.507,-0.007467905878868205
508,0.508,-0.007502299600393845
509,0.509,-0.00753669332191948
510,0.51,-0.007571087043445123
511,0.511,-0.007605480764970766
512,0.512,-0.0076398744864964035
513,0.513,-0.007674268208022033
514,0.514,-0.007708661929547682
515,0.515,-0.007743055651073318
516,0.516,-0.0077774493725989565
517,0.517,-0.007811843094124596
518,0.518,-0.007846236815650226
519,0.519,-0.00788063053717587
520,0.52,-0.007915024258701515
521,0.521,-0.007949417980227151
522,0.522,-0.007983811701752792
523,0.523,-0.008018205423278427
524,0.524,-0.008052599144804067
525,0.525,-0.0080869928663297
526,0.526,-0.008121386587855346
527,0.527,-0.008155780309380984
528,0.528,-0.008190174030906622
529,0.529,-0.008224567752432261
530,0.53,-0.008258961473957901
531,0.531,-0.008293355195483536
532,0.532,-0.008327748917009178
533,0.533,-0.008362142638534815
534,0.534,-0.008396536360060453
535,0.535,-0.008430930081586093
536,0.536,-0.00846532380311173
537,0.537,-0.008499717524637365
538,0.538,-0.008534111246163004
539,0.539,-0.00856850496768865
540,0.54,-0.00860289868921428
541,0.541,-0.008637292410739926
542,0.542,-0.008671686132265556
543,0.543,-0.008706079853791198
544,0.544,-0.00874047357531684
545,0.545,-0.008774867296842482
546,0.546,-0.008809261018368108
547,0.547,-0.00884365473989375
548,0.548,-0.008878048461419394
549,0.549,-0.008912442182945027
550,0.55,-0.008946835904470665
551,0.551,-0.00898122962599631
552,0.552,-0.009015623347521947
553,0.553,-0.009050017069047586
554,0.554,-0.009084410790573223
555,0.555,-0.009118804512098868
556,0.556,-0.0091531982336245
557,0.557,-0.009187591955150136
558,0.558,-0.009221985676675776
559,0.559,-0.009256379398201415
560,0.56,-0.009290773119727052
561,0.561,-0.009325166841252692
562,0.562,-0.009359560562778334
563,0.5630000000000001,-0.009393954284303972
564,0.5640000000000001,-0.009428348005829605
565,0.5650000000000001,-0.009462741727355254
566,0.5660000000000001,-0.009497135448880884
567,0.5670000000000001,-0.00953152917040653
568,0.5680000000000001,-0.009565922891932165
569,0.5690000000000001,-0.009600316613457803
570,0.5700000000000001,-0.009634710334983438
571,0.5710000000000001,-0.00966910405650908
572,0.5720000000000001,-0.009703497778034718
573,0.5730000000000001,-0.009737891499560364
574,0.5740000000000001,-0.009772285221085995
575,0.5750000000000001,-0.00980667894261163
576,0.5760000000000001,-0.00984107266413727
577,0.577,-0.009875466385662906
578,0.578,-0.009909860107188547
579,0.579,-0.009944253828714184
580,0.58,-0.009978647550239816
581,0.581,-0.010013041271765461
582,0.582,-0.0100474349932911
583,0.583,-0.010081828714816747
584,0.584,-0.010116222436342383
585,0.585,-0.010150616157868008
586,0.586,-0.010185009879393655
587,0.587,-0.010219403600919288
588,0.588,-0.010253797322444927
589,0.589,-0.010288191043970576
590,0.59,-0.01032258476549621
591,0.591,-0.010356978487021853
592,0.592,-0.01039137220854748
593,0.593,-0.010425765930073124
594,0.594,-0.01046015965159876
595,0.595,-0.010494553373124401
596,0.596,-0.010528947094650042
597,0.597,-0.010563340816175677
598,0.598,-0.01059773453770132
599,0.599,-0.010632128259226954
600,0.6,-0.010666521980752595
601,0.601,-0.010700915702278229
602,0.602,-0.010735309423803876
603,0.603,-0.010769703145329513
604,0.604,-0.010804096866855142
605,0.605,-0.010838490588380795
606,0.606,-0.010872884309906426
607,0.607,-0.010907278031432065
608,0.608,-0.0109416717529577
609,0.609,-0.010976065474483336
610,0.61,-0.011010459196008977
611,0.611,-0.01104485291753462
612,0.612,-0.01107924663906026
613,0.613,-0.011113640360585897
614,0.614,-0.01114803408211153
615,0.615,-0.01118242780363717
616,0.616,-0.011216821525162813
617,0.617,-0.011251215246688451
618,0.618,-0.011285608968214091
619,0.619,-0.01132000268973973
620,0.62,-0.01135439641126537
621,0.621,-0.011388790132791007
622,0.622,-0.011423183854316647
623,0.623,-0.01145757757584228
624,0.624,-0.011491971297367922
625,0.625,-0.011526365018893557
626,0.626,-0.011560758740419196
627,0.627,-0.011595152461944837
628,0.628,-0.011629546183470476
629,0.629,-0.011663939904996116
630,0.63,-0.01169833362652175
631,0.631,-0.011732727348047384
632,0.632,-0.011767121069573032
633,0.633,-0.011801514791098668
634,0.634,-0.01183590851262431
635,0.635,-0.011870302234149945
636,0.636,-0.011904695955675584
637,0.637,-0.01193908967720122
638,0.638,-0.01197348339872686
639,0.639,-0.012007877120252504
640,0.64,-0.012042270841778148
641,0.641,-0.012076664563303781
642,0.642,-0.012111058284829413
643,0.643,-0.012145452006355053
644,0.644,-0.012179845727880691
645,0.645,-0.012214239449406332
646,0.646,-0.012248633170931972
647,0.647,-0.012283026892457607
648,0.648,-0.012317420613983245
649,0.649,-0.012351814335508884
650,0.65,-0.01238620805703452
651,0.651,-0.012420601778560162
652,0.652,-0.012454995500085804
653,0.653,-0.012489389221611441
654,0.654,-0.012523782943137076
655,0.655,-0.012558176664662713
656,0.656,-0.012592570386188356
657,0.657,-0.012626964107713993
658,0.658,-0.012661357829239633
659,0.659,-0.012695751550765272
660,0.66,-0.012730145272290907
661,0.661,-0.012764538993816544
662,0.662,-0.012798932715342184
663,0.663,-0.012833326436867827
664,0.664,-0.012867720158393464
665,0.665,-0.012902113879919097
666,0.666,-0.012936507601444743
667,0.667,-0.01297090132297038
668,0.668,-0.013005295044496015
669,0.669,-0.013039688766021655
670,0.67,-0.0130740824875473
671,0.671,-0.013108476209072933
672,0.672,-0.013142869930598568
673,0.673,-0.013177263652124203
674,0.674,-0.01321165737364985
675,0.675,-0.013246051095175492
676,0.676,-0.013280444816701131
677,0.677,-0.013314838538226766
678,0.678,-0.013349232259752408
679,0.679,-0.013383625981278041
680,0.68,-0.013418019702803681
681,0.681,-0.013452413424329322
682,0.682,-0.013486807145854958
683,0.683,-0.013521200867380598
684,0.684,-0.013555594588906233
685,0.685,-0.013589988310431875
686,0.686,-0.013624382031957514
687,0.687,-0.013658775753483149
688,0.6880000000000001,-0.013693169475008796
689,0.6890000000000001,-0.01372756319653443
690,0.6900000000000001,-0.01376195691806006
691,0.6910000000000001,-0.013796350639585708
692,0.6920000000000001,-0.013830744361111348
693,0.6930000000000001,-0.013865138082636976
694,0.6940000000000001,-0.013899531804162625
695,0.6950000000000001,-0.013933925525688257
696,0.6960000000000001,-0.013968319247213897
697,0.6970000000000001,-0.014002712968739542
698,0.6980000000000001,-0.014037106690265174
699,0.6990000000000001,-0.014071500411790816
700,0.7000000000000001,-0.01410589413331645
701,0.7010000000000001,-0.01414028785484209
702,0.7020000000000001,-0.014174681576367731
703,0.7030000000000001,-0.014209075297893371
704,0.704,-0.01424346901941901
705,0.705,-0.014277862740944645
706,0.706,-0.01431225646247028
707,0.707,-0.014346650183995922
708,0.708,-0.014381043905521562
709,0.709,-0.014415437627047202
710,0.71,-0.01444983134857284
711,0.711,-0.01448422507009847
712,0.712,-0.014518618791624116
713,0.713,-0.014553012513149752
714,0.714,-0.014587406234675391
715,0.715,-0.014621799956201024
716,0.716,-0.014656193677726666
717,0.717,-0.014690587399252306
718,0.718,-0.014724981120777941
719,0.719,-0.014759374842303582
720,0.72,-0.014793768563829225
721,0.721,-0.014828162285354864
722,0.722,-0.014862556006880497
723,0.723,-0.014896949728406134
724,0.724,-0.014931343449931772
725,0.725,-0.014965737171457414
726,0.726,-0.015000130892983054
727,0.727,-0.01503452461450869
728,0.728,-0.015068918336034333
729,0.729,-0.015103312057559964
730,0.73,-0.015137705779085603
731,0.731,-0.015172099500611245
732,0.732,-0.015206493222136876
733,0.733,-0.015240886943662527
734,0.734,-0.015275280665188164
735,0.735,-0.015309674386713792
736,0.736,-0.015344068108239434
737,0.737,-0.01537846182976508
738,0.738,-0.015412855551290714
739,0.739,-0.015447249272816356
740,0.74,-0.015481642994341991
741,0.741,-0.015516036715867633
742,0.742,-0.015550430437393277
743,0.743,-0.015584824158918912
744,0.744,-0.015619217880444548
745,0.745,-0.015653611601970187
746,0.746,-0.015688005323495822
747,0.747,-0.015722399045021464
748,0.748,-0.0157567927665471
749,0.749,-0.01579118648807274
750,0.75,-0.015825580209598383
751,0.751,-0.01585997393112402
752,0.752,-0.015894367652649653
753,0.753,-0.01592876137417529
754,0.754,-0.01596315509570094
755,0.755,-0.01599754881722657
756,0.756,-0.016031942538752206
757,0.757,-0.016066336260277852
758,0.758,-0.016100729981803487
759,0.759,-0.016135123703329125
760,0.76,-0.016169517424854764
761,0.761,-0.01620391114638041
762,0.762,-0.01623830486790604
763,0.763,-0.016272698589431676
764,0.764,-0.016307092310957318
765,0.765,-0.016341486032482956
766,0.766,-0.016375879754008595
767,0.767,-0.01641027347553424
768,0.768,-0.01644466719705987
769,0.769,-0.016479060918585517
770,0.77,-0.016513454640111152
771,0.771,-0.016547848361636787
772,0.772,-0.01658224208316243
773,0.773,-0.01661663580468807
774,0.774,-0.01665102952621371
775,0.775,-0.016685423247739348
776,0.776,-0.01671981696926498
777,0.777,-0.016754210690790618
778,0.778,-0.01678860441231626
779,0.779,-0.016822998133841895
780,0.78,-0.01685739185536754
781,0.781,-0.016891785576893168
782,0.782,-0.01692617929841882
783,0.783,-0.016960573019944452
784,0.784,-0.016994966741470087
785,0.785,-0.017029360462995732
786,0.786,-0.017063754184521364
787,0.787,-0.017098147906047006
788,0.788,-0.01713254162757264
789,0.789,-0.017166935349098286
790,0.79,-0.017201329070623928
791,0.791,-0.017235722792149563
792,0.792,-0.017270116513675195
793,0.793,-0.017304510235200833
794,0.794,-0.017338903956726475
795,0.795,-0.017373297678252114
796,0.796,-0.017407691399777755
797,0.797,-0.017442085121303394
798,0.798,-0.017476478842829032
799,0.799,-0.017510872564354664
800,0.8,-0.01754526628588031
801,0.801,-0.017579660007405948
802,0.802,-0.017614053728931586
803,0.803,-0.01764844745045722
804,0.804,-0.017682841171982867
805,0.805,-0.0177172348935085
806,0.806,-0.01775162861503414
807,0.807,-0.017786022336559775
808,0.808,-0.017820416058085417
809,0.809,-0.017854809779611056
810,0.81,-0.01788920350113669
811,0.811,-0.017923597222662326
812,0.812,-0.01795799094418797
813,0.8130000000000001,-0.01799238466571361
814,0.8140000000000001,-0.01802677838723925
815,0.8150000000000001,-0.01806117210876489
816,0.8160000000000001,-0.018095565830290525
817,0.8170000000000001,-0.01812995955181616
818,0.8180000000000001,-0.018164353273341805
819,0.8190000000000001,-0.01819874699486744
820,0.8200000000000001,-0.018233140716393082
821,0.8210000000000001,-0.01826753443791872
822,0.8220000000000001,-0.01830192815944436
823,0.8230000000000001,-0.018336321880969998
824,0.8240000000000001,-0.01837071560249563
825,0.8250000000000001,-0.01840510932402127
826,0.8260000000000001,-0.01843950304554691
827,0.8270000000000001,-0.018473896767072548
828,0.8280000000000001,-0.018508290488598176
829,0.8290000000000001,-0.01854268421012384
830,0.8300000000000001,-0.018577077931649463
831,0.8310000000000001,-0.0186114716531751
832,0.8320000000000001,-0.018645865374700744
833,0.833,-0.01868025909622638
834,0.834,-0.018714652817752017
835,0.835,-0.018749046539277656
836,0.836,-0.01878344026080329
837,0.837,-0.018817833982328936
838,0.838,-0.01885222770385457
839,0.839,-0.018886621425380206
840,0.84,-0.018921015146905844
841,0.841,-0.018955408868431493
842,0.842,-0.018989802589957125
843,0.843,-0.01902419631148276
844,0.844,-0.019058590033008402
845,0.845,-0.01909298375453404
846,0.846,-0.019127377476059682
847,0.847,-0.019161771197585317
848,0.848,-0.019196164919110956
849,0.849,-0.019230558640636587
850,0.85,-0.019264952362162233
851,0.851,-0.019299346083687868
852,0.852,-0.01933373980521351
853,0.853,-0.019368133526739148
854,0.854,-0.019402527248264786
855,0.855,-0.019436920969790425
856,0.856,-0.019471314691316074
857,0.857,-0.0195057084128417
858,0.858,-0.019540102134367344
859,0.859,-0.019574495855892982
860,0.86,-0.01960888957741862
861,0.861,-0.019643283298944256
862,0.862,-0.01967767702046989
863,0.863,-0.019712070741995533
864,0.864,-0.019746464463521164
865,0.865,-0.01978085818504681
866,0.866,-0.01981525190657245
867,0.867,-0.019849645628098087
868,0.868,-0.019884039349623725
869,0.869,-0.01991843307114937
870,0.87,-0.019952826792675002
871,0.871,-0.019987220514200637
872,0.872,-0.020021614235726282
873,0.873,-0.020056007957251924
874,0.874,-0.02009040167877756
875,0.875,-0.020124795400303194
876,0.876,-0.02015918912182884
877,0.877,-0.020193582843354475
878,0.878,-0.02022797656488011
879,0.879,-0.020262370286405755
880,0.88,-0.0202967640079314
881,0.881,-0.020331157729457032
882,0.882,-0.020365551450982664
883,0.883,-0.02039994517250831
884,0.884,-0.020434338894033944
885,0.885,-0.02046873261555959
886,0.886,-0.02050312633708522
887,0.887,-0.020537520058610866
888,0.888,-0.0205719137801365
889,0.889,-0.02060630750166214
890,0.89,-0.020640701223187775
891,0.891,-0.02067509494471342
892,0.892,-0.02070948866623905
893,0.893,-0.020743882387764694
894,0.894,-0.020778276109290332
895,0.895,-0.020812669830815974
896,0.896,-0.020847063552341605
897,0.897,-0.020881457273867247
898,0.898,-0.020915850995392886
899,0.899,-0.020950244716918524
900,0.9,-0.020984638438444163
901,0.901,-0.021019032159969794
902,0.902,-0.021053425881495436
903,0.903,-0.021087819603021085
904,0.904,-0.02112221332454672
905,0.905,-0.02115660704607236
906,0.906,-0.02119100076759799
907,0.907,-0.021225394489123632
908,0.908,-0.021259788210649264
909,0.909,-0.02129418193217491
910,0.91,-0.021328575653700554
911,0.911,-0.021362969375226182
912,0.912,-0.02139736309675183
913,0.913,-0.021431756818277466
914,0.914,-0.021466150539803105
915,0.915,-0.02150054426132874
916,0.916,-0.021534937982854385
917,0.917,-0.021569331704380024
918,0.918,-0.021603725425905655
919,0.919,-0.021638119147431297
920,0.92,-0.02167251286895693
921,0.921,-0.021706906590482578
922,0.922,-0.02174130031200821
923,0.923,-0.021775694033533848
924,0.924,-0.021810087755059493
925,0.925,-0.02184448147658513
926,0.926,-0.021878875198110766
927,0.927,-0.02191326891963641
928,0.928,-0.02194766264116204
929,0.929,-0.021982056362687675
930,0.93,-0.02201645008421332
931,0.931,-0.022050843805738962
932,0.932,-0.02208523752726459
933,0.933,-0.022119631248790236
934,0.934,-0.022154024970315878
935,0.935,-0.02218841869184151
936,0.936,-0.02222281241336715
937,0.937,-0.022257206134892786
938,0.9380000000000001,-0.022291599856418428
939,0.9390000000000001,-0.02232599357794407
940,0.9400000000000001,-0.022360387299469705
941,0.9410000000000001,-0.02239478102099535
942,0.9420000000000001,-0.022429174742520975
943,0.9430000000000001,-0.02246356846404662
944,0.9440000000000001,-0.02249796218557226
945,0.9450000000000001,-0.02253235590709791
946,0.9460000000000001,-0.022566749628623536
947,0.9470000000000001,-0.022601143350149178
948,0.9480000000000001,-0.022635537071674813
949,0.9490000000000001,-0.02266993079320045
950,0.9500000000000001,-0.022704324514726093
951,0.9510000000000001,-0.022738718236251725
952,0.9520000000000001,-0.022773111957777373
953,0.9530000000000001,-0.022807505679303
954,0.9540000000000001,-0.022841899400828647
955,0.9550000000000001,-0.022876293122354296
956,0.9560000000000001,-0.022910686843879924
957,0.9570000000000001,-0.022945080565405562
958,0.9580000000000001,-0.022979474286931204
959,0.9590000000000001,-0.023013868008456832
960,0.96,-0.02304826172998247
961,0.961,-0.023082655451508116
962,0.962,-0.023117049173033748
963,0.963,-0.02315144289455939
964,0.964,-0.02318583661608502
965,0.965,-0.023220230337610667
966,0.966,-0.023254624059136305
967,0.967,-0.02328901778066195
968,0.968,-0.023323411502187582
969,0.969,-0.023357805223713217
970,0.97,-0.023392198945238862
971,0.971,-0.0234265926667645
972,0.972,-0.02346098638829014
973,0.973,-0.023495380109815788
974,0.974,-0.02352977383134142
975,0.975,-0.02356416755286705
976,0.976,-0.023598561274392693
977,0.977,-0.02363295499591833
978,0.978,-0.023667348717443967
979,0.979,-0.023701742438969612
980,0.98,-0.023736136160495244
981,0.981,-0.02377052988202089
982,0.982,-0.023804923603546524
983,0.983,-0.023839317325072155
984,0.984,-0.023873711046597804
985,0.985,-0.02390810476812344
986,0.986,-0.023942498489649074
987,0.987,-0.023976892211174716
988,0.988,-0.02401128593270036
989,0.989,-0.024045679654225986
990,0.99,-0.024080073375751635
991,0.991,-0.024114467097277274
992,0.992,-0.024148860818802905
993,0.993,-0.024183254540328547
994,0.994,-0.024217648261854182
995,0.995,-0.024252041983379824
996,0.996,-0.024286435704905466
997,0.997,-0.0243208294264311
998,0.998,-0.024355223147956736
999,0.999,-0.024389616869482378
1000,1.0,-0.02442401059100802
